<?xml version="1.0"?>
<opencv_storage>
<stage7>
  <maxWeakCount>13</maxWeakCount>
  <stageThreshold>-1.5123206377029419e+00</stageThreshold>
  <weakClassifiers>
    <_>
      <internalNodes>
        0 -1 486043 -1.6870324034243822e-03</internalNodes>
      <leafValues>
        6.8217933177947998e-01 -2.7955493330955505e-01</leafValues></_>
    <_>
      <internalNodes>
        0 -1 689466 4.9560572952032089e-03</internalNodes>
      <leafValues>
        -2.8190940618515015e-01 6.5697574615478516e-01</leafValues></_>
    <_>
      <internalNodes>
        0 -1 690537 4.9324578139930964e-04</internalNodes>
      <leafValues>
        -2.4537597596645355e-01 6.5077251195907593e-01</leafValues></_>
    <_>
      <internalNodes>
        0 -1 645351 -5.3789671510457993e-03</internalNodes>
      <leafValues>
        2.7320930361747742e-01 -6.0722768306732178e-01</leafValues></_>
    <_>
      <internalNodes>
        0 -1 909786 -4.5614782720804214e-03</internalNodes>
      <leafValues>
        4.4273960590362549e-01 -3.2354882359504700e-01</leafValues></_>
    <_>
      <internalNodes>
        0 -1 846019 -8.7950017768889666e-04</internalNodes>
      <leafValues>
        -7.7574867010116577e-01 1.6367357969284058e-01</leafValues></_>
    <_>
      <internalNodes>
        0 -1 816597 7.5816293247044086e-04</internalNodes>
      <leafValues>
        -2.2629639506340027e-01 6.4464980363845825e-01</leafValues></_>
    <_>
      <internalNodes>
        0 -1 238189 9.8468195647001266e-03</internalNodes>
      <leafValues>
        -4.2230653762817383e-01 3.5838332772254944e-01</leafValues></_>
    <_>
      <internalNodes>
        0 -1 544991 1.0431772097945213e-03</internalNodes>
      <leafValues>
        -2.4639502167701721e-01 5.4104077816009521e-01</leafValues></_>
    <_>
      <internalNodes>
        0 -1 486064 1.3408402446657419e-03</internalNodes>
      <leafValues>
        -3.1752359867095947e-01 4.6054133772850037e-01</leafValues></_>
    <_>
      <internalNodes>
        0 -1 758086 1.3897541910409927e-02</internalNodes>
      <leafValues>
        -3.2827991247177124e-01 3.5749301314353943e-01</leafValues></_>
    <_>
      <internalNodes>
        0 -1 727622 1.4732884243130684e-02</internalNodes>
      <leafValues>
        1.8250085413455963e-01 -8.0290454626083374e-01</leafValues></_>
    <_>
      <internalNodes>
        0 -1 737573 6.4417184330523014e-03</internalNodes>
      <leafValues>
        -2.3387470841407776e-01 6.3248729705810547e-01</leafValues></_></weakClassifiers></stage7>
</opencv_storage>
