<?xml version="1.0"?>
<opencv_storage>
<stage15>
  <maxWeakCount>20</maxWeakCount>
  <stageThreshold>-1.2114638090133667e+00</stageThreshold>
  <weakClassifiers>
    <_>
      <internalNodes>
        0 -1 595102 2.1398554090410471e-03</internalNodes>
      <leafValues>
        -2.0754717290401459e-01 5.1229107379913330e-01</leafValues></_>
    <_>
      <internalNodes>
        0 -1 689462 1.5760373789817095e-03</internalNodes>
      <leafValues>
        -1.8576626479625702e-01 5.5455839633941650e-01</leafValues></_>
    <_>
      <internalNodes>
        0 -1 286179 1.2834256514906883e-02</internalNodes>
      <leafValues>
        -4.3176391720771790e-01 2.5105234980583191e-01</leafValues></_>
    <_>
      <internalNodes>
        0 -1 635612 4.6358851250261068e-04</internalNodes>
      <leafValues>
        -4.6446248888969421e-01 2.1625083684921265e-01</leafValues></_>
    <_>
      <internalNodes>
        0 -1 543849 1.6495345626026392e-03</internalNodes>
      <leafValues>
        -2.5136604905128479e-01 4.6321320533752441e-01</leafValues></_>
    <_>
      <internalNodes>
        0 -1 431386 -6.5806647762656212e-03</internalNodes>
      <leafValues>
        -7.1401762962341309e-01 1.9103202223777771e-01</leafValues></_>
    <_>
      <internalNodes>
        0 -1 419487 -1.3118455186486244e-02</internalNodes>
      <leafValues>
        -8.0246746540069580e-01 1.0119751095771790e-01</leafValues></_>
    <_>
      <internalNodes>
        0 -1 769838 6.1943959444761276e-03</internalNodes>
      <leafValues>
        1.0292721539735794e-01 -7.0657372474670410e-01</leafValues></_>
    <_>
      <internalNodes>
        0 -1 689462 -1.6682519344612956e-03</internalNodes>
      <leafValues>
        5.6127232313156128e-01 -2.1552395820617676e-01</leafValues></_>
    <_>
      <internalNodes>
        0 -1 939676 1.2014136649668217e-02</internalNodes>
      <leafValues>
        -1.0425172746181488e-01 6.5504664182662964e-01</leafValues></_>
    <_>
      <internalNodes>
        0 -1 996794 -5.0970859592780471e-04</internalNodes>
      <leafValues>
        -6.3078522682189941e-01 1.6772221028804779e-01</leafValues></_>
    <_>
      <internalNodes>
        0 -1 976059 -5.2373493090271950e-03</internalNodes>
      <leafValues>
        5.4872006177902222e-01 -1.7406640946865082e-01</leafValues></_>
    <_>
      <internalNodes>
        0 -1 962734 2.7786585269495845e-04</internalNodes>
      <leafValues>
        1.9164560735225677e-01 -4.5747694373130798e-01</leafValues></_>
    <_>
      <internalNodes>
        0 -1 813519 -2.0158011466264725e-02</internalNodes>
      <leafValues>
        -6.9149732589721680e-01 1.1051351577043533e-01</leafValues></_>
    <_>
      <internalNodes>
        0 -1 956195 2.4491290096193552e-03</internalNodes>
      <leafValues>
        -3.5662141442298889e-01 2.5113052129745483e-01</leafValues></_>
    <_>
      <internalNodes>
        0 -1 484753 2.1757604554295540e-03</internalNodes>
      <leafValues>
        -2.9603445529937744e-01 3.1999346613883972e-01</leafValues></_>
    <_>
      <internalNodes>
        0 -1 586842 8.0394709948450327e-04</internalNodes>
      <leafValues>
        1.0130962729454041e-01 -9.7364890575408936e-01</leafValues></_>
    <_>
      <internalNodes>
        0 -1 432223 6.0406935517676175e-05</internalNodes>
      <leafValues>
        1.8983559310436249e-01 -4.1325822472572327e-01</leafValues></_>
    <_>
      <internalNodes>
        0 -1 678391 9.9119800142943859e-04</internalNodes>
      <leafValues>
        -2.9119941592216492e-01 2.9544577002525330e-01</leafValues></_>
    <_>
      <internalNodes>
        0 -1 420717 9.6432468853890896e-04</internalNodes>
      <leafValues>
        -1.2181616574525833e-01 7.2692066431045532e-01</leafValues></_></weakClassifiers></stage15>
</opencv_storage>
