<?xml version="1.0"?>
<opencv_storage>
<stage16>
  <maxWeakCount>19</maxWeakCount>
  <stageThreshold>-9.2476695775985718e-01</stageThreshold>
  <weakClassifiers>
    <_>
      <internalNodes>
        0 -1 529975 6.0708168894052505e-04</internalNodes>
      <leafValues>
        -7.5418993830680847e-02 5.1357465982437134e-01</leafValues></_>
    <_>
      <internalNodes>
        0 -1 644822 -7.4246420990675688e-04</internalNodes>
      <leafValues>
        6.0693389177322388e-01 -1.1009658873081207e-01</leafValues></_>
    <_>
      <internalNodes>
        0 -1 167119 -8.1385101657360792e-04</internalNodes>
      <leafValues>
        2.3456916213035583e-01 -3.5119169950485229e-01</leafValues></_>
    <_>
      <internalNodes>
        0 -1 484749 -1.6071292338892817e-03</internalNodes>
      <leafValues>
        4.9297791719436646e-01 -1.9518041610717773e-01</leafValues></_>
    <_>
      <internalNodes>
        0 -1 690532 -9.2661080998368561e-05</internalNodes>
      <leafValues>
        -7.5706356763839722e-01 1.1440928280353546e-01</leafValues></_>
    <_>
      <internalNodes>
        0 -1 484749 1.3285306049510837e-03</internalNodes>
      <leafValues>
        -1.5333937108516693e-01 5.5494344234466553e-01</leafValues></_>
    <_>
      <internalNodes>
        0 -1 853710 -1.5430897474288940e-03</internalNodes>
      <leafValues>
        -5.6412941217422485e-01 1.5478706359863281e-01</leafValues></_>
    <_>
      <internalNodes>
        0 -1 777414 -6.6156368702650070e-03</internalNodes>
      <leafValues>
        7.0489692687988281e-01 -1.0858698934316635e-01</leafValues></_>
    <_>
      <internalNodes>
        0 -1 970103 1.5378899872303009e-02</internalNodes>
      <leafValues>
        -1.3279257714748383e-01 5.8653432130813599e-01</leafValues></_>
    <_>
      <internalNodes>
        0 -1 111427 -1.3323121238499880e-03</internalNodes>
      <leafValues>
        2.9071351885795593e-01 -2.9406878352165222e-01</leafValues></_>
    <_>
      <internalNodes>
        0 -1 480699 -1.1827131966128945e-03</internalNodes>
      <leafValues>
        5.0887340307235718e-01 -1.5853267908096313e-01</leafValues></_>
    <_>
      <internalNodes>
        0 -1 729553 2.2839182056486607e-03</internalNodes>
      <leafValues>
        -1.7258729040622711e-01 4.2179983854293823e-01</leafValues></_>
    <_>
      <internalNodes>
        0 -1 584788 1.0877383174374700e-03</internalNodes>
      <leafValues>
        -2.9614615440368652e-01 2.6540991663932800e-01</leafValues></_>
    <_>
      <internalNodes>
        0 -1 633586 1.5099487500265241e-03</internalNodes>
      <leafValues>
        -2.2374701499938965e-01 3.5157522559165955e-01</leafValues></_>
    <_>
      <internalNodes>
        0 -1 583550 -4.1484553366899490e-03</internalNodes>
      <leafValues>
        -5.1005774736404419e-01 1.6054531931877136e-01</leafValues></_>
    <_>
      <internalNodes>
        0 -1 775548 2.9710580129176378e-03</internalNodes>
      <leafValues>
        -1.3200047612190247e-01 6.6054463386535645e-01</leafValues></_>
    <_>
      <internalNodes>
        0 -1 542191 7.9896934330463409e-03</internalNodes>
      <leafValues>
        1.2475578486919403e-01 -7.6331394910812378e-01</leafValues></_>
    <_>
      <internalNodes>
        0 -1 581837 7.3845987208187580e-04</internalNodes>
      <leafValues>
        -3.1069293618202209e-01 2.7255144715309143e-01</leafValues></_>
    <_>
      <internalNodes>
        0 -1 359492 -7.5434573227539659e-04</internalNodes>
      <leafValues>
        8.7800636887550354e-02 -9.3351852893829346e-01</leafValues></_></weakClassifiers></stage16>
</opencv_storage>
