<?xml version="1.0"?>
<opencv_storage>
<stage2>
  <maxWeakCount>10</maxWeakCount>
  <stageThreshold>-1.3683826923370361e+00</stageThreshold>
  <weakClassifiers>
    <_>
      <internalNodes>
        0 -1 582650 -1.0682217776775360e-02</internalNodes>
      <leafValues>
        5.9352517127990723e-01 -5.3278690576553345e-01</leafValues></_>
    <_>
      <internalNodes>
        0 -1 736515 -8.7291153613477945e-04</internalNodes>
      <leafValues>
        7.4885433912277222e-01 -3.1315177679061890e-01</leafValues></_>
    <_>
      <internalNodes>
        0 -1 583995 -1.9086226820945740e-02</internalNodes>
      <leafValues>
        -7.0030802488327026e-01 3.6379635334014893e-01</leafValues></_>
    <_>
      <internalNodes>
        0 -1 642898 9.6943479729816318e-04</internalNodes>
      <leafValues>
        -4.4033843278884888e-01 4.7923383116722107e-01</leafValues></_>
    <_>
      <internalNodes>
        0 -1 775548 -1.0087736882269382e-03</internalNodes>
      <leafValues>
        7.8056597709655762e-01 -3.1522190570831299e-01</leafValues></_>
    <_>
      <internalNodes>
        0 -1 734323 3.4185443073511124e-03</internalNodes>
      <leafValues>
        -2.7983343601226807e-01 7.9756289720535278e-01</leafValues></_>
    <_>
      <internalNodes>
        0 -1 644823 -1.3064712402410805e-04</internalNodes>
      <leafValues>
        -8.6405038833618164e-01 2.8419917821884155e-01</leafValues></_>
    <_>
      <internalNodes>
        0 -1 287095 7.4788606725633144e-03</internalNodes>
      <leafValues>
        -3.2942360639572144e-01 5.9662765264511108e-01</leafValues></_>
    <_>
      <internalNodes>
        0 -1 430927 9.7636925056576729e-04</internalNodes>
      <leafValues>
        -1.8954038619995117e-01 9.7289770841598511e-01</leafValues></_>
    <_>
      <internalNodes>
        0 -1 428594 -3.8126931758597493e-04</internalNodes>
      <leafValues>
        3.8391828536987305e-01 -5.4827702045440674e-01</leafValues></_></weakClassifiers></stage2>
</opencv_storage>
