<?xml version="1.0"?>
<opencv_storage>
<stage7>
  <maxWeakCount>11</maxWeakCount>
  <stageThreshold>-1.0920017957687378e+00</stageThreshold>
  <weakClassifiers>
    <_>
      <internalNodes>
        0 -1 736515 -8.8014220818877220e-04</internalNodes>
      <leafValues>
        7.7106517553329468e-01 -8.7538622319698334e-02</leafValues></_>
    <_>
      <internalNodes>
        0 -1 587580 1.5493584796786308e-03</internalNodes>
      <leafValues>
        -2.9270482063293457e-01 5.4733103513717651e-01</leafValues></_>
    <_>
      <internalNodes>
        0 -1 734323 4.1624931618571281e-03</internalNodes>
      <leafValues>
        -2.4298359453678131e-01 7.1248990297317505e-01</leafValues></_>
    <_>
      <internalNodes>
        0 -1 775548 -1.4727818779647350e-03</internalNodes>
      <leafValues>
        7.9464113712310791e-01 -2.4061815440654755e-01</leafValues></_>
    <_>
      <internalNodes>
        0 -1 638929 -3.9501092396676540e-04</internalNodes>
      <leafValues>
        6.1665183305740356e-01 -2.4381849169731140e-01</leafValues></_>
    <_>
      <internalNodes>
        0 -1 815719 1.5911655500531197e-03</internalNodes>
      <leafValues>
        -1.6704894602298737e-01 7.9303324222564697e-01</leafValues></_>
    <_>
      <internalNodes>
        0 -1 815723 7.6864357106387615e-04</internalNodes>
      <leafValues>
        -1.9831475615501404e-01 7.1743637323379517e-01</leafValues></_>
    <_>
      <internalNodes>
        0 -1 430928 4.4658519327640533e-03</internalNodes>
      <leafValues>
        -1.6683760285377502e-01 7.5311195850372314e-01</leafValues></_>
    <_>
      <internalNodes>
        0 -1 432225 -8.1332877743989229e-04</internalNodes>
      <leafValues>
        7.8241032361984253e-01 -1.9823910295963287e-01</leafValues></_>
    <_>
      <internalNodes>
        0 -1 348666 -2.9882989823818207e-02</internalNodes>
      <leafValues>
        2.4048127233982086e-01 -7.6226019859313965e-01</leafValues></_>
    <_>
      <internalNodes>
        0 -1 541374 -4.9357686657458544e-04</internalNodes>
      <leafValues>
        6.5560203790664673e-01 -2.5162300467491150e-01</leafValues></_></weakClassifiers></stage7>
</opencv_storage>
