<?xml version="1.0"?>
<opencv_storage>
<stage19>
  <maxWeakCount>27</maxWeakCount>
  <stageThreshold>-9.8330134153366089e-01</stageThreshold>
  <weakClassifiers>
    <_>
      <internalNodes>
        0 -1 741456 -1.8978578737005591e-04</internalNodes>
      <leafValues>
        -3.0351439118385315e-01 3.8461539149284363e-01</leafValues></_>
    <_>
      <internalNodes>
        0 -1 737749 4.6557863242924213e-04</internalNodes>
      <leafValues>
        -2.2517019510269165e-01 3.0389049649238586e-01</leafValues></_>
    <_>
      <internalNodes>
        0 -1 934763 1.3108588755130768e-03</internalNodes>
      <leafValues>
        -1.3199907541275024e-01 5.3086596727371216e-01</leafValues></_>
    <_>
      <internalNodes>
        0 -1 601234 1.8526286585256457e-03</internalNodes>
      <leafValues>
        -1.3831740617752075e-01 5.2030503749847412e-01</leafValues></_>
    <_>
      <internalNodes>
        0 -1 601482 -2.6225526817142963e-03</internalNodes>
      <leafValues>
        5.0346386432647705e-01 -1.2687087059020996e-01</leafValues></_>
    <_>
      <internalNodes>
        0 -1 689663 -2.3780234158039093e-02</internalNodes>
      <leafValues>
        -8.9660006761550903e-01 9.7047626972198486e-02</leafValues></_>
    <_>
      <internalNodes>
        0 -1 876049 -1.0315725579857826e-02</internalNodes>
      <leafValues>
        -6.4185452461242676e-01 8.9986011385917664e-02</leafValues></_>
    <_>
      <internalNodes>
        0 -1 909518 -1.3311812654137611e-03</internalNodes>
      <leafValues>
        5.5062669515609741e-01 -1.4188162982463837e-01</leafValues></_>
    <_>
      <internalNodes>
        0 -1 880692 4.9004619941115379e-03</internalNodes>
      <leafValues>
        -1.2841524183750153e-01 5.3555417060852051e-01</leafValues></_>
    <_>
      <internalNodes>
        0 -1 60543 -5.7790413498878479e-02</internalNodes>
      <leafValues>
        5.1802271604537964e-01 -1.3183920085430145e-01</leafValues></_>
    <_>
      <internalNodes>
        0 -1 635750 -2.5710560381412506e-02</internalNodes>
      <leafValues>
        -6.6312354803085327e-01 1.0457825660705566e-01</leafValues></_>
    <_>
      <internalNodes>
        0 -1 765882 -8.6158849298954010e-03</internalNodes>
      <leafValues>
        6.5914237499237061e-01 -9.9671714007854462e-02</leafValues></_>
    <_>
      <internalNodes>
        0 -1 599926 -1.1185949668288231e-02</internalNodes>
      <leafValues>
        4.6875500679016113e-01 -1.0669878870248795e-01</leafValues></_>
    <_>
      <internalNodes>
        0 -1 594286 -3.6749036516994238e-03</internalNodes>
      <leafValues>
        2.7859431505203247e-01 -2.0117360353469849e-01</leafValues></_>
    <_>
      <internalNodes>
        0 -1 422830 -2.0377330482006073e-02</internalNodes>
      <leafValues>
        -6.6295069456100464e-01 8.6774952709674835e-02</leafValues></_>
    <_>
      <internalNodes>
        0 -1 932083 -3.7329636514186859e-02</internalNodes>
      <leafValues>
        3.1062015891075134e-01 -2.2987386584281921e-01</leafValues></_>
    <_>
      <internalNodes>
        0 -1 684862 6.9758662721142173e-04</internalNodes>
      <leafValues>
        -2.1585392951965332e-01 2.9802390933036804e-01</leafValues></_>
    <_>
      <internalNodes>
        0 -1 826603 2.2802832536399364e-03</internalNodes>
      <leafValues>
        9.6471466124057770e-02 -5.5481439828872681e-01</leafValues></_>
    <_>
      <internalNodes>
        0 -1 26408 -3.0991557985544205e-02</internalNodes>
      <leafValues>
        5.4459059238433838e-01 -1.0597243905067444e-01</leafValues></_>
    <_>
      <internalNodes>
        0 -1 26601 -1.4075180515646935e-02</internalNodes>
      <leafValues>
        3.8567715883255005e-01 -1.4926062524318695e-01</leafValues></_>
    <_>
      <internalNodes>
        0 -1 588929 -1.1618419084697962e-03</internalNodes>
      <leafValues>
        4.8876488208770752e-01 -1.1196163296699524e-01</leafValues></_>
    <_>
      <internalNodes>
        0 -1 588931 1.6812871908769011e-03</internalNodes>
      <leafValues>
        -1.3456009328365326e-01 5.2190846204757690e-01</leafValues></_>
    <_>
      <internalNodes>
        0 -1 997497 2.0594303496181965e-03</internalNodes>
      <leafValues>
        1.4822158217430115e-01 -4.5083945989608765e-01</leafValues></_>
    <_>
      <internalNodes>
        0 -1 984429 5.4244822822511196e-03</internalNodes>
      <leafValues>
        -1.2600266933441162e-01 4.7229522466659546e-01</leafValues></_>
    <_>
      <internalNodes>
        0 -1 383459 -4.9625150859355927e-03</internalNodes>
      <leafValues>
        -7.5368714332580566e-01 8.4590502083301544e-02</leafValues></_>
    <_>
      <internalNodes>
        0 -1 185926 5.0714737735688686e-03</internalNodes>
      <leafValues>
        -1.4033392071723938e-01 4.4837021827697754e-01</leafValues></_>
    <_>
      <internalNodes>
        0 -1 425356 5.1454240456223488e-03</internalNodes>
      <leafValues>
        -1.5379598736763000e-01 4.0070897340774536e-01</leafValues></_></weakClassifiers></stage19>
</opencv_storage>
