<?xml version="1.0"?>
<opencv_storage>
<stage6>
  <maxWeakCount>14</maxWeakCount>
  <stageThreshold>-1.3677278757095337e+00</stageThreshold>
  <weakClassifiers>
    <_>
      <internalNodes>
        0 -1 780017 -2.1854980150237679e-04</internalNodes>
      <leafValues>
        -5.2076679468154907e-01 4.3745145201683044e-01</leafValues></_>
    <_>
      <internalNodes>
        0 -1 818269 -1.1233499390073121e-04</internalNodes>
      <leafValues>
        -5.6239175796508789e-01 3.4845563769340515e-01</leafValues></_>
    <_>
      <internalNodes>
        0 -1 739583 -1.8845056183636189e-04</internalNodes>
      <leafValues>
        -6.7316055297851562e-01 2.7506506443023682e-01</leafValues></_>
    <_>
      <internalNodes>
        0 -1 0 1.9970089488197118e-04</internalNodes>
      <leafValues>
        1.8317383527755737e-01 -6.7877304553985596e-01</leafValues></_>
    <_>
      <internalNodes>
        0 -1 0 -2.4945818586274981e-04</internalNodes>
      <leafValues>
        -7.0024526119232178e-01 3.0456349253654480e-01</leafValues></_>
    <_>
      <internalNodes>
        0 -1 780016 -1.5427244943566620e-04</internalNodes>
      <leafValues>
        -6.9330126047134399e-01 1.4853854477405548e-01</leafValues></_>
    <_>
      <internalNodes>
        0 -1 780016 1.4192864182405174e-04</internalNodes>
      <leafValues>
        2.7449345588684082e-01 -4.9580949544906616e-01</leafValues></_>
    <_>
      <internalNodes>
        0 -1 979753 -2.3610374773852527e-04</internalNodes>
      <leafValues>
        -5.4899841547012329e-01 1.9921518862247467e-01</leafValues></_>
    <_>
      <internalNodes>
        0 -1 979753 1.8969632219523191e-04</internalNodes>
      <leafValues>
        2.9929211735725403e-01 -5.4587525129318237e-01</leafValues></_>
    <_>
      <internalNodes>
        0 -1 533901 -1.0729713365435600e-02</internalNodes>
      <leafValues>
        -6.2767690420150757e-01 1.5080423653125763e-01</leafValues></_>
    <_>
      <internalNodes>
        0 -1 38864 1.9810824596788734e-04</internalNodes>
      <leafValues>
        2.1143507957458496e-01 -5.0417220592498779e-01</leafValues></_>
    <_>
      <internalNodes>
        0 -1 850724 5.6735160760581493e-03</internalNodes>
      <leafValues>
        1.5255799889564514e-01 -7.6346933841705322e-01</leafValues></_>
    <_>
      <internalNodes>
        0 -1 645458 -2.6375740766525269e-02</internalNodes>
      <leafValues>
        5.2616858482360840e-01 -2.5457021594047546e-01</leafValues></_>
    <_>
      <internalNodes>
        0 -1 698156 4.2324797250330448e-03</internalNodes>
      <leafValues>
        -1.2738046050071716e-01 8.5428726673126221e-01</leafValues></_></weakClassifiers></stage6>
</opencv_storage>
