<?xml version="1.0"?>
<opencv_storage>
<stage18>
  <maxWeakCount>20</maxWeakCount>
  <stageThreshold>-1.0344600677490234e+00</stageThreshold>
  <weakClassifiers>
    <_>
      <internalNodes>
        0 -1 590780 -8.9207049459218979e-03</internalNodes>
      <leafValues>
        4.4396176934242249e-01 -2.4721603095531464e-01</leafValues></_>
    <_>
      <internalNodes>
        0 -1 806509 3.9405804127454758e-03</internalNodes>
      <leafValues>
        -7.2951501607894897e-01 1.6661848127841949e-01</leafValues></_>
    <_>
      <internalNodes>
        0 -1 642568 1.2170979607617483e-04</internalNodes>
      <leafValues>
        1.1261206865310669e-01 -7.9707205295562744e-01</leafValues></_>
    <_>
      <internalNodes>
        0 -1 848104 1.4651269884780049e-03</internalNodes>
      <leafValues>
        -2.0174831151962280e-01 5.3670859336853027e-01</leafValues></_>
    <_>
      <internalNodes>
        0 -1 774113 -1.4503425918519497e-03</internalNodes>
      <leafValues>
        5.5632090568542480e-01 -2.0760051906108856e-01</leafValues></_>
    <_>
      <internalNodes>
        0 -1 783777 7.7297881944105029e-06</internalNodes>
      <leafValues>
        -2.5783479213714600e-01 3.6019006371498108e-01</leafValues></_>
    <_>
      <internalNodes>
        0 -1 911006 -1.1164766037836671e-03</internalNodes>
      <leafValues>
        6.0408765077590942e-01 -1.8532952666282654e-01</leafValues></_>
    <_>
      <internalNodes>
        0 -1 689971 -6.0692417901009321e-04</internalNodes>
      <leafValues>
        3.1845888495445251e-01 -3.4089726209640503e-01</leafValues></_>
    <_>
      <internalNodes>
        0 -1 848621 -1.5751060098409653e-02</internalNodes>
      <leafValues>
        -7.3221212625503540e-01 1.5727517008781433e-01</leafValues></_>
    <_>
      <internalNodes>
        0 -1 848625 1.7943033017218113e-03</internalNodes>
      <leafValues>
        1.0634474456310272e-01 -8.4678786993026733e-01</leafValues></_>
    <_>
      <internalNodes>
        0 -1 413879 -2.2103431820869446e-01</internalNodes>
      <leafValues>
        -8.5908114910125732e-01 8.7625876069068909e-02</leafValues></_>
    <_>
      <internalNodes>
        0 -1 910375 -8.4583676652982831e-04</internalNodes>
      <leafValues>
        5.1977634429931641e-01 -2.0803359150886536e-01</leafValues></_>
    <_>
      <internalNodes>
        0 -1 375159 -2.5501884520053864e-03</internalNodes>
      <leafValues>
        -7.6378023624420166e-01 1.4042273163795471e-01</leafValues></_>
    <_>
      <internalNodes>
        0 -1 690540 2.8244132408872247e-04</internalNodes>
      <leafValues>
        2.5030398368835449e-01 -3.8468369841575623e-01</leafValues></_>
    <_>
      <internalNodes>
        0 -1 479108 1.2639364227652550e-02</internalNodes>
      <leafValues>
        -6.0621184110641479e-01 1.5072374045848846e-01</leafValues></_>
    <_>
      <internalNodes>
        0 -1 190172 -4.6918230509618297e-05</internalNodes>
      <leafValues>
        3.9894291758537292e-01 -2.3941452801227570e-01</leafValues></_>
    <_>
      <internalNodes>
        0 -1 521506 -3.3618626184761524e-03</internalNodes>
      <leafValues>
        -3.6748585104942322e-01 3.0006447434425354e-01</leafValues></_>
    <_>
      <internalNodes>
        0 -1 108442 -1.7649386427365243e-04</internalNodes>
      <leafValues>
        4.1626527905464172e-01 -2.3947629332542419e-01</leafValues></_>
    <_>
      <internalNodes>
        0 -1 642569 -8.3430641097947955e-05</internalNodes>
      <leafValues>
        -8.9207905530929565e-01 1.1254508048295975e-01</leafValues></_>
    <_>
      <internalNodes>
        0 -1 684904 3.3087804913520813e-03</internalNodes>
      <leafValues>
        -3.0383846163749695e-01 3.4185162186622620e-01</leafValues></_></weakClassifiers></stage18>
</opencv_storage>
