<?xml version="1.0"?>
<opencv_storage>
<stage17>
  <maxWeakCount>16</maxWeakCount>
  <stageThreshold>-9.8324328660964966e-01</stageThreshold>
  <weakClassifiers>
    <_>
      <internalNodes>
        0 -1 503312 9.5156423747539520e-02</internalNodes>
      <leafValues>
        -1.9568566977977753e-01 5.5415350198745728e-01</leafValues></_>
    <_>
      <internalNodes>
        0 -1 370111 8.6600950453430414e-04</internalNodes>
      <leafValues>
        2.0168235898017883e-01 -5.9230411052703857e-01</leafValues></_>
    <_>
      <internalNodes>
        0 -1 683210 2.5678721722215414e-03</internalNodes>
      <leafValues>
        -1.5713393688201904e-01 5.9420770406723022e-01</leafValues></_>
    <_>
      <internalNodes>
        0 -1 592989 1.2356990191619843e-04</internalNodes>
      <leafValues>
        -7.5366652011871338e-01 9.8488770425319672e-02</leafValues></_>
    <_>
      <internalNodes>
        0 -1 738606 -1.1799174535553902e-04</internalNodes>
      <leafValues>
        -4.6265998482704163e-01 1.9745717942714691e-01</leafValues></_>
    <_>
      <internalNodes>
        0 -1 186021 -6.6909775137901306e-02</internalNodes>
      <leafValues>
        5.9693878889083862e-01 -2.0062294602394104e-01</leafValues></_>
    <_>
      <internalNodes>
        0 -1 187279 2.0772807300090790e-02</internalNodes>
      <leafValues>
        -2.9883953928947449e-01 4.3196895718574524e-01</leafValues></_>
    <_>
      <internalNodes>
        0 -1 778326 -7.3202623752877116e-05</internalNodes>
      <leafValues>
        2.3790378868579865e-01 -4.9087759852409363e-01</leafValues></_>
    <_>
      <internalNodes>
        0 -1 992990 1.7827186733484268e-02</internalNodes>
      <leafValues>
        1.1990831792354584e-01 -8.2501530647277832e-01</leafValues></_>
    <_>
      <internalNodes>
        0 -1 841905 -1.8335249274969101e-02</internalNodes>
      <leafValues>
        -6.7620909214019775e-01 1.3276198506355286e-01</leafValues></_>
    <_>
      <internalNodes>
        0 -1 684861 -7.0204696385189891e-04</internalNodes>
      <leafValues>
        4.5053535699844360e-01 -2.3511689901351929e-01</leafValues></_>
    <_>
      <internalNodes>
        0 -1 644821 6.5149739384651184e-05</internalNodes>
      <leafValues>
        1.6759735345840454e-01 -7.2946852445602417e-01</leafValues></_>
    <_>
      <internalNodes>
        0 -1 637708 1.3844169443473220e-03</internalNodes>
      <leafValues>
        -2.7997568249702454e-01 4.2552202939987183e-01</leafValues></_>
    <_>
      <internalNodes>
        0 -1 851231 -1.4844972640275955e-02</internalNodes>
      <leafValues>
        2.6646682620048523e-01 -3.7938863039016724e-01</leafValues></_>
    <_>
      <internalNodes>
        0 -1 486818 1.9008582457900047e-02</internalNodes>
      <leafValues>
        1.7845031619071960e-01 -5.9367787837982178e-01</leafValues></_>
    <_>
      <internalNodes>
        0 -1 715353 -4.6255312860012054e-02</internalNodes>
      <leafValues>
        -4.8092943429946899e-01 2.2122937440872192e-01</leafValues></_></weakClassifiers></stage17>
</opencv_storage>
