<?xml version="1.0"?>
<opencv_storage>
<stage3>
  <maxWeakCount>6</maxWeakCount>
  <stageThreshold>-1.5007835626602173e+00</stageThreshold>
  <weakClassifiers>
    <_>
      <internalNodes>
        0 -1 526567 5.5698074400424957e-02</internalNodes>
      <leafValues>
        -7.4881517887115479e-01 6.0780984163284302e-01</leafValues></_>
    <_>
      <internalNodes>
        0 -1 593936 1.0756905248854309e-04</internalNodes>
      <leafValues>
        3.7303206324577332e-01 -8.4340077638626099e-01</leafValues></_>
    <_>
      <internalNodes>
        0 -1 485093 7.5577367097139359e-03</internalNodes>
      <leafValues>
        -9.0009504556655884e-01 3.8502061367034912e-01</leafValues></_>
    <_>
      <internalNodes>
        0 -1 642568 1.0875661973841488e-04</internalNodes>
      <leafValues>
        2.1350312232971191e-01 -8.9535808563232422e-01</leafValues></_>
    <_>
      <internalNodes>
        0 -1 734325 -1.2646269169636071e-04</internalNodes>
      <leafValues>
        -8.3530783653259277e-01 2.9607608914375305e-01</leafValues></_>
    <_>
      <internalNodes>
        0 -1 689473 8.8192027760669589e-05</internalNodes>
      <leafValues>
        2.2064490616321564e-01 -9.7040194272994995e-01</leafValues></_></weakClassifiers></stage3>
</opencv_storage>
